digraph Tree {
node [shape=box] ;
0 [label="petal length <= 2.8145\nentropy = 1.5799\nsamples = 105\nvalue = [34, 32, 39]"] ;
1 [label="entropy = 0.0\nsamples = 34\nvalue = [34, 0, 0]"] ;
0 -> 1 [labeldistance=2.5, labelangle=45, headlabel="True"] ;
2 [label="petal width <= 1.8722\nentropy = 0.993\nsamples = 71\nvalue = [0, 32, 39]"] ;
0 -> 2 [labeldistance=2.5, labelangle=-45, headlabel="False"] ;
3 [label="petal length <= 5.2456\nentropy = 0.8204\nsamples = 43\nvalue = [0, 32, 11]"] ;
2 -> 3 ;
4 [label="entropy = 0.6292\nsamples = 38\nvalue = [0, 32, 6]"] ;
3 -> 4 ;
5 [label="entropy = 0.0\nsamples = 5\nvalue = [0, 0, 5]"] ;
3 -> 5 ;
6 [label="entropy = 0.0\nsamples = 28\nvalue = [0, 0, 28]"] ;
2 -> 6 ;
}